digraph Tree {
node [shape=box, style="filled, rounded", color="black", fontname=helvetica] ;
edge [fontname=helvetica] ;
0 [label=<feature_71 &le; 0.056<br/>gini = 0.666<br/>samples = 2587<br/>value = [903, 828, 856]<br/>class = entailment>, fillcolor="#fefcfa"] ;
1 [label=<feature_80 &le; 0.981<br/>gini = 0.619<br/>samples = 179<br/>value = [90, 36, 53]<br/>class = entailment>, fillcolor="#f7dac5"] ;
0 -> 1 [labeldistance=2.5, labelangle=45, headlabel="True"] ;
2 [label=<feature_73 &le; -0.924<br/>gini = 0.546<br/>samples = 119<br/>value = [72, 15, 32]<br/>class = entailment>, fillcolor="#f3c5a4"] ;
1 -> 2 ;
3 [label=<feature_73 &le; -0.925<br/>gini = 0.473<br/>samples = 13<br/>value = [5, 0, 8]<br/>class = contradiction>, fillcolor="#d0b5f5"] ;
2 -> 3 ;
4 [label=<gini = 0.469<br/>samples = 8<br/>value = [5, 0, 3]<br/>class = entailment>, fillcolor="#f5cdb0"] ;
3 -> 4 ;
5 [label=<gini = 0.0<br/>samples = 5<br/>value = [0, 0, 5]<br/>class = contradiction>, fillcolor="#8139e5"] ;
3 -> 5 ;
6 [label=<feature_50 &le; -0.312<br/>gini = 0.529<br/>samples = 106<br/>value = [67, 15, 24]<br/>class = entailment>, fillcolor="#f1bd97"] ;
2 -> 6 ;
7 [label=<gini = 0.36<br/>samples = 51<br/>value = [40, 7, 4]<br/>class = entailment>, fillcolor="#eca06b"] ;
6 -> 7 ;
8 [label=<gini = 0.606<br/>samples = 55<br/>value = [27, 8, 20]<br/>class = entailment>, fillcolor="#fae6d7"] ;
6 -> 8 ;
9 [label=<feature_80 &le; 0.983<br/>gini = 0.665<br/>samples = 60<br/>value = [18, 21, 21]<br/>class = neutral>, fillcolor="#ffffff"] ;
1 -> 9 ;
10 [label=<feature_0 &le; -0.227<br/>gini = 0.473<br/>samples = 13<br/>value = [0, 8, 5]<br/>class = neutral>, fillcolor="#b5f5d0"] ;
9 -> 10 ;
11 [label=<gini = 0.375<br/>samples = 4<br/>value = [0, 1, 3]<br/>class = contradiction>, fillcolor="#ab7bee"] ;
10 -> 11 ;
12 [label=<gini = 0.346<br/>samples = 9<br/>value = [0, 7, 2]<br/>class = neutral>, fillcolor="#72eca5"] ;
10 -> 12 ;
13 [label=<feature_2 &le; 0.587<br/>gini = 0.661<br/>samples = 47<br/>value = [18, 13, 16]<br/>class = entailment>, fillcolor="#fdf7f2"] ;
9 -> 13 ;
14 [label=<gini = 0.658<br/>samples = 44<br/>value = [18, 13, 13]<br/>class = entailment>, fillcolor="#fbebdf"] ;
13 -> 14 ;
15 [label=<gini = 0.0<br/>samples = 3<br/>value = [0, 0, 3]<br/>class = contradiction>, fillcolor="#8139e5"] ;
13 -> 15 ;
16 [label=<feature_8 &le; -0.171<br/>gini = 0.667<br/>samples = 2408<br/>value = [813, 792, 803]<br/>class = entailment>, fillcolor="#fffefe"] ;
0 -> 16 [labeldistance=2.5, labelangle=-45, headlabel="False"] ;
17 [label=<feature_6 &le; -0.002<br/>gini = 0.599<br/>samples = 60<br/>value = [9, 31, 20]<br/>class = neutral>, fillcolor="#c9f8dc"] ;
16 -> 17 ;
18 [label=<gini = 0.0<br/>samples = 5<br/>value = [0, 0, 5]<br/>class = contradiction>, fillcolor="#8139e5"] ;
17 -> 18 ;
19 [label=<feature_70 &le; -0.128<br/>gini = 0.581<br/>samples = 55<br/>value = [9, 31, 15]<br/>class = neutral>, fillcolor="#b0f5cd"] ;
17 -> 19 ;
20 [label=<gini = 0.595<br/>samples = 11<br/>value = [6, 2, 3]<br/>class = entailment>, fillcolor="#f5d0b5"] ;
19 -> 20 ;
21 [label=<gini = 0.487<br/>samples = 44<br/>value = [3, 29, 12]<br/>class = neutral>, fillcolor="#96f1bc"] ;
19 -> 21 ;
22 [label=<feature_27 &le; -0.524<br/>gini = 0.666<br/>samples = 2348<br/>value = [804, 761, 783]<br/>class = entailment>, fillcolor="#fffdfc"] ;
16 -> 22 ;
23 [label=<feature_67 &le; 0.448<br/>gini = 0.298<br/>samples = 11<br/>value = [0, 9, 2]<br/>class = neutral>, fillcolor="#65eb9d"] ;
22 -> 23 ;
24 [label=<gini = 0.0<br/>samples = 8<br/>value = [0, 8, 0]<br/>class = neutral>, fillcolor="#39e581"] ;
23 -> 24 ;
25 [label=<gini = 0.444<br/>samples = 3<br/>value = [0, 1, 2]<br/>class = contradiction>, fillcolor="#c09cf2"] ;
23 -> 25 ;
26 [label=<feature_84 &le; -1.591<br/>gini = 0.666<br/>samples = 2337<br/>value = [804, 752, 781]<br/>class = entailment>, fillcolor="#fffdfc"] ;
22 -> 26 ;
27 [label=<gini = 0.651<br/>samples = 225<br/>value = [67, 60, 98]<br/>class = contradiction>, fillcolor="#e6d8fa"] ;
26 -> 27 ;
28 [label=<gini = 0.666<br/>samples = 2112<br/>value = [737, 692, 683]<br/>class = entailment>, fillcolor="#fefbf9"] ;
26 -> 28 ;
}
